digraph Tree {
node [shape=box, style="filled, rounded", color="black", fontname=helvetica] ;
edge [fontname=helvetica] ;
0 [label="mygoal_dist <= 24.7291\ngini = 0.4978\nsamples = 15\nvalue = [7, 8]\nclass = goal", fillcolor="#399de520"] ;
1 [label="mygoal_dist <= 13.558\ngini = 0.2188\nsamples = 8\nvalue = [7, 1]\nclass = fonceur", fillcolor="#e58139db"] ;
0 -> 1 [labeldistance=2.5, labelangle=45, headlabel="True"] ;
2 [label="gini = 0.0\nsamples = 6\nvalue = [6, 0]\nclass = fonceur", fillcolor="#e58139ff"] ;
1 -> 2 ;
3 [label="gini = 0.5\nsamples = 2\nvalue = [1, 1]\nclass = fonceur", fillcolor="#e5813900"] ;
1 -> 3 ;
4 [label="gini = 0.0\nsamples = 7\nvalue = [0, 7]\nclass = goal", fillcolor="#399de5ff"] ;
0 -> 4 [labeldistance=2.5, labelangle=-45, headlabel="False"] ;
}